<?xml version="1.0"?>
<opencv_storage>
<stage8>
  <maxWeakCount>6</maxWeakCount>
  <stageThreshold>-9.7969436645507812e-01</stageThreshold>
  <weakClassifiers>
    <_>
      <internalNodes>
        0 -1 125512 -7.7430577948689461e-03</internalNodes>
      <leafValues>
        8.1069958209991455e-01 -5.5182075500488281e-01</leafValues></_>
    <_>
      <internalNodes>
        0 -1 12296 2.5500390678644180e-02</internalNodes>
      <leafValues>
        -5.9269171953201294e-01 5.5014759302139282e-01</leafValues></_>
    <_>
      <internalNodes>
        0 -1 60447 4.4770063832402229e-03</internalNodes>
      <leafValues>
        -4.8281830549240112e-01 5.4860466718673706e-01</leafValues></_>
    <_>
      <internalNodes>
        0 -1 76689 -3.6652269773185253e-03</internalNodes>
      <leafValues>
        2.2236230969429016e-01 -8.9939582347869873e-01</leafValues></_>
    <_>
      <internalNodes>
        0 -1 12837 3.6127213388681412e-04</internalNodes>
      <leafValues>
        2.3946356773376465e-01 -6.7816632986068726e-01</leafValues></_>
    <_>
      <internalNodes>
        0 -1 52367 -9.1006290167570114e-03</internalNodes>
      <leafValues>
        -9.4057965278625488e-01 1.8581053614616394e-01</leafValues></_></weakClassifiers></stage8>
</opencv_storage>
