<?xml version="1.0"?>
<opencv_storage>
<stage4>
  <maxWeakCount>10</maxWeakCount>
  <stageThreshold>-1.0152553319931030e+00</stageThreshold>
  <weakClassifiers>
    <_>
      <internalNodes>
        0 -1 17263 1.3741238508373499e-03</internalNodes>
      <leafValues>
        -6.8361580371856689e-01 2.8605201840400696e-01</leafValues></_>
    <_>
      <internalNodes>
        0 -1 127747 1.0473553629708476e-05</internalNodes>
      <leafValues>
        -6.4878129959106445e-01 1.6942796111106873e-01</leafValues></_>
    <_>
      <internalNodes>
        0 -1 160006 -7.0393481291830540e-04</internalNodes>
      <leafValues>
        2.5750064849853516e-01 -4.9826464056968689e-01</leafValues></_>
    <_>
      <internalNodes>
        0 -1 114320 5.5624044034630060e-04</internalNodes>
      <leafValues>
        -2.8349605202674866e-01 4.4698235392570496e-01</leafValues></_>
    <_>
      <internalNodes>
        0 -1 118822 4.3123395880684257e-04</internalNodes>
      <leafValues>
        -6.3875663280487061e-01 2.0377862453460693e-01</leafValues></_>
    <_>
      <internalNodes>
        0 -1 158647 -4.7566194552928209e-04</internalNodes>
      <leafValues>
        -7.6046252250671387e-01 1.2738099694252014e-01</leafValues></_>
    <_>
      <internalNodes>
        0 -1 157437 -2.4087924975901842e-03</internalNodes>
      <leafValues>
        -5.5502593517303467e-01 1.7836117744445801e-01</leafValues></_>
    <_>
      <internalNodes>
        0 -1 6773 -7.8415192547254264e-05</internalNodes>
      <leafValues>
        -4.7396358847618103e-01 2.0356804132461548e-01</leafValues></_>
    <_>
      <internalNodes>
        0 -1 119127 1.2050269171595573e-02</internalNodes>
      <leafValues>
        -4.6866294741630554e-01 1.9288380444049835e-01</leafValues></_>
    <_>
      <internalNodes>
        0 -1 19993 -4.2177719296887517e-04</internalNodes>
      <leafValues>
        -5.3560078144073486e-01 2.3353663086891174e-01</leafValues></_></weakClassifiers></stage4>
</opencv_storage>
